//Numpy array shape (10, 32)
//Min -0.780374884605
//Max 0.646854102612

weight_default_t w1[10][32] = {0.469886034727, 0, 0, -0.200682103634, -0.442451655865, 0, -0.00461332546547, 0.485931366682, 0.542743623257, 0.0105694588274, 0, -0.439520865679, 0, 0.0439695045352, -0.0137981586158, 0.295308321714, 0, -0.235930711031, 0, 0, 0, 0.437705606222, 0, 0.331360459328, 0.152280181646, 0.411959022284, 0.388127863407, 0, 0.16480627656, 0.0976520776749, 0.627826809883, -0.1764690727, 0, 0, -0.422784358263, 0, 0.300285577774, 0.238359376788, 0, 0.317052841187, 0.326164513826, 0, 0.407794475555, 0.257050514221, 0.51091337204, 0, 0, 0, 0, 0, 0, 0, -0.000206599419471, 0, 0, 0, 0, 0, 0, 0, 0, -0.652442574501, 0, 0.220575734973, 0, 0.438910186291, -0.306240767241, 0, 0, 0.3572678864, 0, 0, 0, 0, -0.487095057964, 0, 0, 0, 0.591501116753, 0, 0.264412999153, 0.0641430318356, 0.065486446023, 0.166196450591, 0, 0, 0, 0, 0, 0.574057936668, 0.258876770735, 0.0988429412246, 0, 0.365797281265, 0, 0, -0.388556420803, -0.338402450085, -0.10554137826, -0.458934038877, 0, 0.433230131865, 0, 0.0728542357683, 0.404284179211, 0.554571032524, 0, 0, 0.171757608652, 0.0327457301319, 0.609308063984, 0, 0.0312469471246, 0, 0, -0.498597204685, 0, 0, 0, 0, -0.61884611845, 0.646854102612, 0, 0.427223861217, 0, -0.24024116993, 0.213585242629, 0, 0.0677106902003, 0.307132989168, 0, 0.564430236816, 0.373969048262, 0, 0, 0, 0.580298185349, 0, 0.300760626793, -0.355630248785, 0, 0.0594677887857, 0, -0.307702571154, 0, 0, 0, 0.137764915824, 0, -0.0766139179468, -0.541784107685, 0, 0, 0, 0.0934605523944, 0, -0.0440296866, 0.0679265484214, 0.642297625542, -0.0125775840133, 0, 0, 0, 0, -0.332670778036, -0.0228065475821, 0, -0.451573699713, -0.0221301410347, 0, 0.326373547316, 0, -0.108291178942, -0.412107855082, 0, 0, 0.397280603647, 0, 0, 0, 0.26713809371, 0, 0, 0, 0, 0.38796466589, 0.195471301675, -0.431639403105, -0.0420404225588, -0.592884480953, -0.710084378719, 0, -0.367289185524, 0.381537139416, 0, -0.478854894638, 0, 0, 0, -0.115412861109, 0, 0, 0.369744092226, 0.310960561037, -0.00471964431927, 0.0807521864772, -0.372333705425, -0.172515034676, -0.115229815245, -0.240981906652, -0.0264383982867, 0, -0.0810084193945, 0.0773022249341, -0.770044803619, 0.0681896284223, 0, 0.454740464687, -0.22361548245, 0.403856545687, 0, 0, 0.00806753803045, -0.356280982494, 0, 0.115001045167, 0, -0.571761250496, 0, 0, 0, -0.679587125778, -0.0962254032493, -0.0460290648043, 0, -0.124097146094, 0, 0.224245175719, -0.557738721371, 0.328040361404, -0.0466306358576, 0, 0, 0.48392868042, 0, 0, 0, -0.421781778336, 0.496215313673, -0.302800446749, 0, 0, 0.119063258171, -0.35147562623, -0.39615136385, 0.0605220645666, 0, -0.248717084527, -0.346449553967, -0.501381456852, 0.0550600588322, 0, 0, -0.035626064986, -0.312921822071, 0.0827094018459, 0, 0, 0, -0.276159733534, -0.780374884605, 0, 0.307958126068, 0, -0.344679713249, 0.0704858377576, 0.493517488241, 0.306565761566, 0, -0.543242454529, -0.220428451896, 0, -0.128503292799, 0, 0, 0.0973702296615, -0.327868074179, -0.446466118097, 0, 0, 0, 0, 0, 0, 0, -0.655940413475, 0, -0.31935557723, 0, 0, 0, 0, -0.346742898226, -0.0618994273245, 0.500961601734, 0, 0.110334888101, -0.151589557528, 0.399537920952, 0.325923115015, -0.00381595967337, 0, 0, 0.338534146547, 0.333391338587, 0, 0, -0.254403948784, 0.155952066183, 0};