//Numpy array shape (80, 32)
//Min -19.889799118042
//Max 26.691186904907
//Number of zeros 0

weight_default_t w1[2560] = {0.534941256046, 1.628631234169, 0.118102833629, 1.105411887169, -0.012865338475, 0.831506967545, -1.581595778465, -0.033870883286, -0.901970028877, 0.758832514286, -2.126227617264, 0.386407017708, -1.346311450005, 0.161918312311, -0.680818676949, -0.105350926518, -1.895286440849, -0.085598118603, -0.420209765434, -0.117059268057, -2.671715497971, 0.377395480871, 0.391537517309, -0.119767665863, 0.306521296501, -0.058770339936, -0.267055243254, 1.131667613983, -0.069049790502, -5.020527362823, -1.273447871208, 0.675492048264, 0.165785491467, 2.166276216507, 0.293451666832, 1.060625195503, 0.136458680034, -0.929150223732, -0.929987609386, -0.126871272922, 0.013751708902, -0.165107309818, -0.800376772881, 0.290389388800, 0.050852946937, -0.022181807086, 0.995318174362, 0.133123695850, -0.845019638538, -0.211842775345, -0.270911604166, -0.069608613849, -0.796196043491, 0.119283169508, 0.244541376829, 1.586945652962, -0.054678976536, -0.012151353061, -0.040334496647, 1.301740527153, -0.036917284131, -0.713274598122, -11.534933090210, 0.170216411352, 0.687541842461, -0.144842922688, -0.564639508724, 0.607212960720, -1.078730583191, -1.064040422440, -0.277916431427, -0.185796499252, -0.525414705276, 0.178903982043, -2.004804611206, -0.127370327711, -0.042694129050, 0.795303225517, 0.005690384656, -1.151290655136, -2.081715345383, -1.320814013481, 0.000555744744, -0.000372428913, 0.505300581455, -0.062721170485, -0.398726165295, 0.821818053722, 2.042241334915, 0.047909855843, 0.077659249306, -1.381554245949, -0.238159656525, -3.750316858292, 0.067203834653, 1.097073197365, 1.233774542809, -0.009408497252, 0.829430878162, -0.265485405922, 6.262376308441, -1.811381220818, 0.123869501054, -0.074446298182, 0.408307164907, -0.634528696537, 0.471707582474, 0.061714712530, -0.035626687109, -2.178792715073, 0.022734107450, 0.728676736355, -1.085470438004, 1.354058265686, 0.029565371573, 0.066382654011, -1.298024773598, -0.140318021178, -0.026043837890, 1.143463015556, -2.360584020615, -0.003277945798, 0.076583318412, 0.165359377861, -0.378731638193, 2.436140060425, 0.266762107611, -1.141718864441, -1.469255685806, 0.084728851914, 0.566137075424, 0.464282274246, -8.016044616699, -0.682850539684, 0.080830685794, 0.105286478996, -0.265995085239, -0.139155164361, 0.337762951851, 0.748325049877, 0.211769461632, -1.200720071793, -1.482743382454, 0.438828617334, 6.199313640594, 1.271597981453, -0.082139894366, 0.000793682644, 0.046638775617, 0.104111097753, 1.085524678230, 0.010643742979, -0.135026633739, 0.384031295776, -0.077879473567, 2.810081005096, 0.472001463175, 0.148680239916, -0.650974273682, 0.872311115265, 0.099160909653, 1.513005256653, -0.291504144669, -0.157025650144, 0.301995664835, 0.616591095924, 0.236179590225, 0.242176473141, -0.521558642387, 0.330295443535, -0.374348461628, 0.076175682247, 0.557290256023, 0.364544570446, -0.079261630774, -0.252961277962, 0.166472807527, -0.014387362637, -0.063670225441, 0.011194336228, -0.743244349957, 0.115241393447, 0.143367692828, -0.612625122070, 0.000861635141, 0.275908499956, -0.001037049573, -1.266476154327, -0.210492938757, -0.435238987207, 9.030535697937, 1.126560807228, 0.094342909753, -0.006977924146, 0.610137045383, -0.048649679869, -0.243593648076, -0.488928169012, -0.172023653984, -0.164907529950, 0.167343020439, -0.156613051891, 0.142010629177, -0.006321549416, 0.159268066287, 0.488062679768, 0.986220002174, 0.422089129686, -0.061791982502, -0.257923752069, 0.058756485581, -0.022139081731, -0.093833275139, 0.016154471785, -0.167823776603, -0.025946360081, -0.007785306778, 0.032683204859, -0.027354428545, -0.053832013160, -0.046111769974, 0.279359310865, -0.671896934509, 0.425635635853, 0.081527724862, 0.284891605377, 0.304544299841, -0.069011718035, -1.106218576431, -0.884203910828, 0.022694345564, 0.042954985052, 0.099773257971, 0.088639780879, 0.284972399473, 0.352356672287, 0.368668496609, -1.072936058044, -0.199629351497, 0.353392630816, 0.598803579807, 0.993940353394, -0.057374924421, -0.030472163111, 0.042480845004, -0.052422121167, 0.293755412102, -0.255062669516, 0.131289020181, 0.021430199966, -0.005931734107, 0.356392025948, -0.064653888345, -0.134885385633, -0.242163479328, 0.741390109062, -0.226380318403, 0.246739059687, -0.118658043444, -0.111864022911, 0.342261224985, 0.558765709400, 0.085543788970, -0.033228557557, 0.063019081950, -0.134711921215, 0.576180219650, 0.485548228025, -0.382143735886, -0.984524488449, 0.315310806036, -0.306762695312, -0.145827576518, 0.787532985210, 0.005237781908, -0.027105687186, 0.034056551754, 0.099541559815, 0.719038069248, -0.016226105392, 0.509797036648, -0.078534327447, -0.011009613052, 3.195709228516, 0.093277789652, -0.011097338982, -0.318045347929, -1.231950044632, -0.174058616161, -0.059489846230, 0.204130738974, -0.167826116085, 0.082700371742, 0.176058888435, -0.067968681455, 0.068655759096, 0.105174183846, 0.211761295795, 0.025770932436, -0.147340029478, 0.049454957247, -0.203894063830, -0.026716545224, -0.083916559815, -0.106201186776, -0.106474235654, 0.025691360235, -0.090307876468, -0.052307695150, 0.146716624498, -0.050118520856, -0.131692826748, 0.171053171158, 0.157486349344, -0.220109745860, -0.041862174869, -0.136311829090, -0.165838807821, 0.192849814892, -0.186977937818, 0.049204796553, 0.067077249289, 0.217586606741, 0.141789704561, -0.138190105557, -0.228489488363, 0.209341138601, 0.060303300619, 0.223226934671, -0.123550616205, 0.049656927586, 0.003719627857, 0.114878416061, -0.018302932382, 0.105488508940, 0.073790878057, 0.169052779675, 0.204526245594, -0.193723037839, 0.209959417582, -0.152902662754, -0.183000177145, 0.173676818609, 0.160788118839, 0.004886582494, -0.176403686404, -0.088499963284, 0.010170370340, 0.112765818834, 0.141253381968, 0.178883105516, -0.137641415000, -0.226927131414, 0.026362061501, -0.011373192072, 0.109021097422, -0.066105201840, -0.196085035801, 0.162318110466, 0.159845799208, -0.132892787457, 0.109907627106, 0.127380430698, 0.201687663794, -0.116748020053, 0.170521110296, -0.200850769877, -0.004315212369, 0.140770792961, -0.051195532084, -0.028062418103, -0.088501065969, -0.160217300057, 0.141635864973, -0.221714258194, -0.212394818664, -0.182074084878, 0.068861991167, 0.219274550676, -0.226017668843, 0.214955210686, 0.107395559549, -0.048830270767, -0.217061594129, -0.143184974790, -0.195537284017, 0.080016426742, 0.071201875806, -0.035792235285, -0.174040079117, -0.036661148071, 0.075805917382, -0.029462115839, 0.705984115601, -0.114367268980, -0.208825141191, 0.510150849819, 0.035680513829, -0.101163946092, 0.038961011916, 0.030377903953, -0.088777258992, -0.726892530918, -0.167516693473, 0.053698841482, 0.062777481973, 0.143679112196, -0.077442213893, -0.071218617260, -0.036214578897, -0.050545666367, 0.082833081484, 0.051626209170, -0.087516263127, 0.804760396481, -0.295617133379, -0.298652499914, 0.440599650145, 0.087894827127, 0.039603885263, 0.179471671581, -0.153375878930, 0.048991803080, -0.093887723982, -0.021030951291, -2.854277849197, -0.026207029819, -0.326701670885, 0.408248007298, -0.345687359571, -0.299695104361, -0.012106240727, -0.206154063344, -0.108971022069, -0.278350770473, -0.095726996660, -0.139639452100, 0.047054763883, 0.073345355690, -0.006698713172, 0.234804302454, -0.173982068896, 0.667896211147, 0.315182387829, 0.091866508126, 0.004053117707, 0.460979104042, 0.294858098030, 0.039585780352, 0.049381982535, -0.032636161894, -0.064807437360, 0.049951352179, 0.226952880621, 0.016472054645, -0.074181281030, 0.041044451296, 0.067933946848, 0.023036153987, 0.201774671674, -0.256594836712, 0.062085766345, -0.046618532389, 0.146769478917, -0.089341372252, 0.124004825950, 0.039002645761, 0.006102363113, -0.025120509788, -0.083019509912, -0.038942184299, -0.005124249030, -0.035469364375, -0.003996850923, -0.138630390167, -0.132515579462, 0.020194513723, -0.042210891843, 0.440208256245, 0.204382419586, -0.027718957514, -0.007417527959, -0.021262364462, -0.017151378095, 0.043784733862, -0.005376856308, -0.038058847189, -0.028001723811, 0.027982959524, 0.125850304961, 0.017338354141, 0.087755002081, -0.225467756391, 0.000655499811, 0.011611411348, 0.002393255942, -0.030356105417, 0.064333759248, 0.261858165264, -0.004364686087, -0.038528822362, -0.020044414327, -0.032349955291, -0.022084979340, 0.007159188855, -0.005781191401, -0.163443684578, -0.062562234700, 0.001202905783, 0.001447876915, -0.123049207032, 0.099414914846, -0.001580674434, 0.069988571107, -0.020493386313, -0.029378056526, -0.011045375839, -0.065766282380, -0.018575508147, -0.016714565456, 0.031703975052, 0.012796246447, 0.088198944926, 0.003306942992, -0.153217047453, 0.924281656742, -0.043838161975, -0.054030958563, 0.016222469509, 0.012037344277, 0.413377881050, 0.000048685972, 0.042689967901, -0.020989090204, -0.043655022979, 0.047714408487, -0.108995661139, 0.029631778598, -0.012231007218, 0.056129697710, -0.003366875695, 0.065607361495, -1.247431159019, 0.062917970121, 0.035467375070, -0.115674093366, -0.037780191749, -0.006194398738, -0.018859917298, -0.036050502211, -0.019720081240, 0.049712497741, 0.071335986257, 2.855992794037, -0.050876680762, -0.012157824822, 0.370488196611, -0.028027877212, -0.051337923855, -0.074901856482, 0.004866028205, 0.081774987280, -0.024574926123, -0.101857595146, -0.035578496754, -0.085215002298, -0.019275784492, -0.067258894444, 0.115860424936, -0.391861498356, -0.014557331800, 0.028696801513, -0.041376095265, 0.031282484531, -0.397896081209, 0.238078489900, 0.029920287430, -0.337060123682, 0.000641714025, -0.019535155967, 0.047718197107, -0.053787432611, -0.011538234539, -0.011688663624, -0.132384791970, 1.083618521690, 0.053443890065, -0.046338349581, -0.052130017430, -0.039692945778, 2.411705493927, 0.114193648100, -0.096396669745, 0.036320999265, -0.012187419459, -0.024790415540, 0.032828789204, 0.137966677547, 0.064524546266, -0.002432687208, 0.170983493328, -0.127543210983, -0.036393947899, -0.052932273597, 0.038250368088, -0.100444242358, 0.248345032334, -0.119658075273, 0.006147730164, 0.077614322305, 0.074333809316, -0.014556992799, -0.016137178987, -0.015282692388, -0.033599954098, -0.030566921458, -0.034041259438, 0.700295090675, 0.027756888419, 0.041384119540, 0.021847276017, -0.043946176767, 0.021132444963, 0.006252974737, -0.056881353259, 0.015461612493, -0.012450355105, 0.010640167631, -0.015210270882, -0.065369881690, -0.010998679325, 0.013313832693, -0.002021573950, -0.018592489883, -0.001689967816, -0.053271040320, 0.025059420615, 0.018812226132, -0.063064716756, -0.060801465064, -0.020188996568, 0.011182574555, -0.017042670399, 0.009550866671, -0.068858988583, -0.033780273050, -0.028579525650, 0.003853155766, 0.008956311271, 0.123334996402, 0.037840638310, 0.069200240076, 0.279289484024, 1.254383444786, -0.040636368096, 0.011442014948, -0.007623176556, -0.014529056847, 0.007432313636, 0.016239829361, 0.013960274868, 0.017469070852, -0.048807870597, -0.000146155246, -0.020957481116, 0.003242633305, -0.021790377796, 0.017372203991, 0.018232332543, -0.027869105339, -0.337676495314, -0.005756608211, -0.100002080202, -0.037740051746, 0.031730264425, -0.039103135467, -0.206327974796, 0.211531639099, 0.193998575211, 0.030138283968, 0.066919654608, -0.201428756118, 0.129958808422, -0.188279986382, 0.027307063341, -0.029542431235, -0.126501709223, -0.215066611767, 0.134403973818, -0.092605590820, -0.046364352107, 0.205483824015, 0.041211307049, 0.019249618053, -0.222333580256, 0.124130249023, -0.069051101804, -0.168972715735, -0.155471265316, 0.179055720568, -0.178649425507, -0.106943182647, -0.131760492921, 0.047613590956, -0.107782788575, -0.101907879114, 0.170316696167, 0.134034931660, 0.062062144279, -0.205563187599, 0.081896513700, 0.119148254395, 0.127851366997, -0.168108940125, -0.212937325239, -0.198631465435, -0.082603201270, -0.190961658955, -0.170865327120, -0.186282306910, 0.073217928410, 0.118338495493, -0.174882560968, -0.210996136069, -0.119232028723, 0.012696981430, 0.205544978380, -0.136475563049, -0.193422555923, -0.081729874015, -0.118583850563, -0.075070753694, 0.230951219797, 0.094601780176, -0.112485721707, -0.130959719419, 0.066938191652, -0.071534171700, -0.189866721630, -0.212362810969, -0.178746372461, 0.145128279924, 0.150954842567, 0.124571889639, -0.216415464878, -0.004852756858, -0.083403691649, -0.052568987012, -0.068131476641, -0.131468623877, 0.076665341854, -0.017419949174, -0.064298287034, 0.059437245131, 0.163893103600, 0.033756643534, 0.110396265984, -0.158156365156, -0.216473892331, 0.150650948286, 0.194537967443, -0.075963288546, -0.077357828617, 0.082939594984, 0.007258579135, -0.225589439273, -0.130994170904, 0.134808689356, -4.751554489136, -19.889799118042, -4.767868518829, 1.875923633575, 1.342429280281, 1.973890185356, -1.127517580986, 2.029796123505, -1.139396429062, 1.419021010399, 0.482769966125, 3.362752199173, 2.959182739258, 0.036654841155, -2.160875082016, -1.026247978210, -0.414591252804, 1.030416846275, 2.009178400040, -0.367732554674, 0.305424451828, 1.229530334473, 2.289006471634, 5.382018566132, -0.506351172924, -0.489687949419, 0.240285545588, 0.686797559261, 2.171872854233, -2.624966621399, 2.879929304123, 1.371096730232, -3.693863630295, 4.105835437775, -2.405697107315, 1.769717216492, 4.000406742096, -1.365703344345, -1.825781822205, 2.090052127838, 3.497923851013, -1.491482734680, -0.197815358639, 3.747173309326, -5.236837387085, 2.385450124741, 15.687504768372, -1.287291646004, 2.050909996033, 0.554468393326, -1.856657505035, 0.131740003824, 5.159713745117, 2.848812580109, 4.887735843658, 1.583231806755, -2.080632925034, -6.800549507141, -0.416073560715, 1.339659690857, 5.213334083557, -4.840607166290, 0.175524249673, -16.296766281128, 0.309676080942, 0.023138035089, 8.143257141113, -0.319104284048, -0.869061589241, 0.267829060555, -0.373701840639, -0.312149971724, -0.225840702653, -0.203889891505, 0.201155677438, 0.055493593216, -0.205154225230, -0.310742825270, 0.517498373985, 3.500639915466, 0.524060070515, -1.207470297813, -0.303843289614, 0.067605987191, 0.255514025688, 0.201143264771, -0.838870286942, -0.147214591503, 0.355135530233, -0.208904907107, -0.685286283493, -0.347345501184, 0.377470195293, -1.153278946877, -0.749574780464, 0.475295096636, -1.185286998749, -0.734745144844, -3.180866479874, 0.682189524174, 5.247303009033, 0.628328084946, -0.666672229767, 0.447250097990, -0.763968944550, 1.269743323326, -0.109958879650, 1.679739475250, 0.522517323494, 0.684258043766, 1.859846830368, -1.002527117729, -1.198364019394, -0.611674249172, -0.547461986542, -0.030746158212, -0.170118004084, 0.190296277404, 1.925546526909, -0.296760290861, 1.290058732033, -0.474979519844, -0.274846047163, 0.050550833344, 0.954577267170, -1.297387003899, -1.906518816948, -2.224699020386, -0.101825483143, -0.526942551136, -3.091936349869, 0.402370184660, -1.400189161301, 1.050364851952, -0.305873841047, 0.377109736204, 0.020917437971, -1.019312858582, -0.344569355249, 0.360654294491, 0.209482342005, -14.715547561646, -0.767264127731, -0.112218216062, 3.581130027771, 0.035227205604, 0.339012920856, -0.125998109579, 0.624280571938, 0.060514312238, 0.722322285175, -0.029830629006, -0.725532472134, -0.066500656307, -0.083811409771, -0.817076683044, -0.142866551876, -1.391100883484, -0.472886413336, 2.400968790054, 0.164148598909, -0.194009050727, 0.106617718935, 0.106882601976, -0.148023471236, -0.016212821007, -0.088637873530, 0.140875101089, -0.137990772724, 0.054961234331, -0.043749332428, -0.118765458465, -0.113187268376, 0.048721224070, -0.088668659329, -0.101280331612, 0.100157201290, -0.205931589007, -0.100330859423, 0.143001735210, -0.097765341401, -0.174860760570, 0.164499402046, -0.105778425932, -0.104712724686, -0.204862415791, 0.100683033466, 0.172593832016, -0.150745436549, -0.012609466910, 0.208064138889, 0.007261946797, -0.073990538716, -0.141601249576, 0.156514436007, 0.019202739000, 0.086016386747, 0.195612013340, -0.123172663152, -0.112875260413, 0.202088207006, 0.114859044552, -0.214154005051, -0.112105950713, 0.170189350843, -0.010507598519, -0.104319497943, 0.091093957424, -0.180485188961, -0.163152813911, 0.082960724831, -0.157446652651, 0.116931885481, -0.216235890985, 0.082141637802, 0.056614071131, 0.063192844391, 0.080414742231, 0.174384027719, -0.164776206017, 0.019082278013, -0.099664568901, 0.098643034697, 0.092801004648, 0.144368410110, -0.209610939026, 0.178566545248, -0.076344445348, -0.058989435434, -0.117873810232, 0.184635967016, 0.103271305561, 0.113581895828, -0.208403959870, -0.123897932470, -0.226874545217, -0.229110300541, -0.108665831387, -0.121222160757, -0.184925556183, -0.116260200739, 0.170002371073, -0.143580228090, 0.090900778770, 0.097777575254, 0.088997215033, -0.029292881489, -0.067476615310, 0.097171992064, -0.182341665030, -0.086026102304, -0.068437293172, 0.062960416079, 0.080347478390, 0.070845156908, 0.135700583458, -0.011233523488, 0.059465676546, -0.098733797669, -0.122262030840, -0.156218558550, -0.036867499352, 0.023675501347, -0.137274444103, 0.227166533470, 0.125886350870, 0.050506293774, 0.067132502794, 0.042662233114, -0.191822245717, -0.100849956274, 0.147797048092, 0.215405434370, -0.194736972451, 0.172303855419, -0.157696098089, 0.097626447678, 0.039739936590, -0.100226223469, 0.059416323900, 0.032858550549, 0.043697685003, 0.086665242910, 0.172985911369, -0.224553823471, -0.153539806604, 0.231216847897, -0.179799541831, -0.177123054862, 0.100428253412, 0.152967602015, 0.055080652237, 0.104222148657, 0.059030890465, -0.147032216191, 0.225980758667, -0.062397390604, 0.137087106705, 0.055659413338, -0.030683115125, -0.209172725677, 0.226678043604, -0.121620357037, 0.182249128819, -0.116281770170, -0.088661715388, 0.143288820982, 0.060427665710, 0.109006047249, -0.151760697365, -0.097751811147, -0.099128693342, -0.112588420510, -0.088992640376, 0.213145196438, 0.118472814560, -0.148220360279, -0.139968767762, 0.091677963734, 0.118318319321, -0.170460671186, -0.015900865197, -0.171066313982, -0.218178391457, -0.168298542500, 0.004606917500, 0.089232355356, 0.028462171555, -0.147481352091, 0.062629818916, 0.031142175198, 0.061410814524, -0.080241695046, 0.223472446203, -0.056540682912, -0.050651088357, -0.149715930223, 0.157738804817, -0.156653612852, 0.203504681587, 0.146523475647, -0.097094088793, -0.106698274612, -0.169786885381, -0.080889329314, 0.031032770872, 0.066159158945, 0.115900069475, -0.056694090366, 0.207651048899, -0.155525952578, 0.161383211613, -0.231121718884, -0.140118360519, 0.002414047718, -0.140791267157, -0.140492677689, -0.056668758392, -0.042818948627, -0.081922516227, -0.110980108380, 0.019531369209, -0.024160355330, 0.015103474259, 0.165874123573, -0.031201735139, -0.044481724501, 0.039275407791, -0.156202942133, 0.223700344563, -0.171171709895, -0.002399474382, 0.129905283451, 0.143691271544, 0.173842072487, 0.123950362206, 0.127700716257, 0.184906423092, -0.014130041003, 0.048409730196, -0.040961205959, -0.089091032743, 0.005086183548, 0.120568841696, -0.151019692421, 0.118634998798, -0.168468177319, 0.111312866211, 0.075851827860, -0.189919307828, -0.214523449540, 0.033000469208, -0.083319425583, -0.165664762259, -0.108328059316, 0.179115921259, 0.102266788483, 0.013808324933, 0.043566912413, -0.220327720046, 0.063727527857, -0.116715900600, 0.062203586102, 0.017505377531, -0.161182731390, -0.109620556235, 0.134706377983, 0.027711391449, 0.217050284147, 0.069264262915, 0.151705890894, 0.196778953075, -0.034176871181, 0.167055428028, -0.207393392920, -0.006791889668, -0.135956451297, -0.028935030103, 0.228773444891, 0.156299173832, 0.127895176411, 0.189316093922, 0.196668922901, 0.153250813484, -0.001589059830, 0.058597087860, -0.059706598520, 0.088422715664, 0.126630216837, 0.069389045238, -0.010995462537, 0.133932322264, -0.120492026210, 0.068385303020, -0.208115860820, 0.099016875029, -0.168261408806, -0.185742169619, 0.169021159410, 0.095528662205, -0.053346574306, 0.006570115685, -0.212398171425, 0.057057529688, -0.179680511355, -0.136403977871, -0.193992599845, 0.163490206003, 0.072692096233, -0.214285165071, 0.075081855059, -0.122294314206, 0.133245795965, -0.148761540651, 0.081010013819, 0.077750384808, 0.215973287821, 0.153104007244, 0.230250060558, -0.140259534121, -0.085788935423, -0.041082769632, -0.211855843663, -0.178868934512, -0.052629351616, -0.205776527524, 0.099547535181, 0.027668237686, -0.020527318120, 0.018920868635, 0.135423719883, 0.048682421446, 0.142750978470, 0.043046027422, -0.060806065798, -0.130966186523, -0.007984846830, -0.151842862368, 0.097888290882, -0.138134032488, 0.113017410040, 0.005092576146, -0.056701213121, -0.143045946956, 0.149732112885, -0.148729711771, 0.125217914581, 0.091928660870, -0.005196705461, 0.126261204481, 0.008336529136, -0.025799244642, 0.139431178570, -0.101355224848, -0.182341441512, -0.035114049911, 0.174295455217, 0.053568899632, 0.064814805984, 0.142724990845, 0.105769425631, -0.202029481530, 0.224584400654, 0.075796246529, -0.157156229019, 0.088379621506, -0.223516434431, 0.139196813107, -0.104518041015, -0.064273998141, -0.181703582406, 0.044608861208, -0.128023535013, 0.220254153013, 0.050814092159, 0.183698952198, 0.180427193642, 0.079741895199, -0.224166154861, 0.210519731045, 0.008643180132, -0.118889234960, 0.146161973476, 0.045562088490, -0.103269249201, 0.000796183944, -0.198553115129, -0.143977329135, -0.030488491058, 0.030855000019, -0.033360719681, -0.052846282721, 0.212738066912, -0.045492351055, 0.110778033733, -0.090773344040, 0.021343857050, 0.053140670061, 0.026718318462, -0.043707668781, -0.041820243001, -0.005844563246, 0.163736611605, -0.216064766049, 0.141215354204, -0.184066638350, 0.083815455437, 0.133533537388, 0.049983322620, 0.059930205345, -0.063511431217, 0.099620580673, -0.126085460186, -0.027694776654, 0.221200346947, 0.107113927603, 0.028867930174, -0.040856465697, -0.225476145744, 0.075350642204, 0.169520974159, -0.184519410133, 0.053030699492, -0.221010059118, -0.047106683254, 0.054852038622, -0.025954023004, 0.072978973389, -0.043082892895, 0.154333829880, 0.049690425396, 0.093369156122, 0.001557931304, -0.183999255300, 0.221989303827, -0.181938767433, 0.097550183535, 0.066123396158, -0.132016152143, 0.113316625357, -0.158327609301, 0.210198014975, -0.041916474700, 0.154866665602, -0.033802449703, 0.095275133848, 0.043953120708, 0.142155349255, -0.190918624401, 0.128318876028, -0.097073227167, -0.114527389407, 0.126155972481, 0.085973799229, -0.113962642848, -0.095928445458, 0.130937874317, 0.152970582247, 0.092624962330, -0.025224447250, -0.111924730241, 0.133873164654, -0.031933560967, 0.225490123034, 0.026086419821, 0.015440091491, -0.063547685742, 0.082891643047, 0.013917475939, -0.065494209528, 0.162923932076, 0.024177968502, 0.065455973148, -0.047781899571, 0.020318239927, 0.089459717274, 0.173900693655, 0.058282822371, -0.058659270406, 0.151122659445, -0.165120378137, 0.176691025496, -0.072396412492, 0.206953197718, -0.099580645561, 0.171622455120, -0.005687117577, -0.143346041441, 0.148624539375, -0.141815245152, 0.020141482353, 0.115155994892, 0.219454079866, 0.186629027128, 0.006509572268, 0.224968135357, -0.207642495632, -0.186487525702, 0.047076553106, -0.183399751782, -0.228877753019, -0.217539429665, -0.054495871067, -0.075677379966, 0.034518122673, 0.080412000418, 0.052104771137, 0.212659031153, 0.044633746147, 0.219243168831, -0.074610412121, 0.005617365241, -0.029546126723, -0.040257900953, 0.178920656443, 0.095923036337, 0.006904795766, -0.221971303225, -0.089690372348, 0.183840155602, -0.102674320340, 0.116982370615, -0.230002269149, 0.061818897724, -0.175422251225, -0.147819727659, 0.017817705870, -0.043670088053, -0.230555042624, 0.165304958820, -0.135611891747, 0.151627153158, -0.018741205335, 0.071016550064, -0.217639312148, 0.017088964581, -0.161271348596, -0.163198947906, -0.094300001860, -0.173907577991, 0.076042979956, -0.191484421492, 0.133402526379, 0.069729954004, 0.090195029974, -0.042776182294, 0.205911576748, 0.053231447935, -0.048847705126, 0.047100484371, 0.205062180758, -0.045490577817, 0.145289570093, -0.157149612904, 0.040919929743, -0.109429404140, 0.025525480509, -0.018672779202, 0.180299729109, 0.194565623999, -0.167420297861, -0.219931393862, 0.207715600729, 0.077095478773, 0.057613015175, 0.091072052717, -0.142174541950, -0.140164226294, -0.135853856802, 0.061868518591, 0.163667142391, -0.035192966461, -0.075282543898, 0.215276211500, 0.183347374201, 0.046333551407, 0.200525671244, -0.144186362624, -0.192251354456, -0.151951342821, -0.148947402835, 0.174456924200, -0.022109419107, 0.059109836817, -0.108569592237, 0.037152409554, -0.105949491262, -0.156177937984, 0.164485931396, -0.167906850576, 0.197028458118, -0.062651172280, -0.050015985966, 0.052111089230, -0.046117797494, 0.170171737671, -0.224731951952, -0.166607171297, -0.215958327055, 0.036227315664, -0.124094225466, 0.189101487398, 0.172351241112, -0.186657324433, -0.065049096942, 0.100219279528, -0.185358747840, -0.228059217334, -0.209123224020, -0.127382874489, -0.213285967708, -0.183100104332, -0.124159947038, -0.162715047598, -0.010312527418, -0.047497048974, -0.138379484415, -0.107101887465, -0.190045520663, -0.208546891809, -0.227744132280, -0.068742454052, -0.230714857578, -0.223508045077, 0.048100471497, 0.092706292868, 0.149179935455, 0.023457199335, -0.005630508065, 0.149917572737, -0.195020332932, -0.060888230801, 0.075575172901, -0.067460000515, -0.023396566510, -0.059304088354, 0.097921550274, -0.022921442986, 0.113703936338, -0.085110500455, -0.190063059330, 0.079094380140, 0.133581638336, -0.120604269207, 0.164860844612, 0.175000041723, -0.103475138545, -0.129250869155, -0.066218823195, 0.066052436829, -0.010967656970, -0.065799266100, 0.072842359543, -0.017666116357, 0.069534212351, 0.223651289940, 0.136951565742, -0.226900205016, -0.075554385781, 0.189450144768, 0.424216389656, 1.856692552567, -1.462130069733, -0.592183589935, 0.103727310896, 0.630916595459, -1.811613559723, 2.070179700851, -3.000797986984, 1.823485016823, 0.628558695316, 0.507412374020, 1.288552880287, 0.118788361549, -1.534646034241, 0.323814809322, 0.599948167801, -0.420197814703, 0.332305520773, 0.022588586435, 0.674048125744, 0.318859547377, -0.116194412112, 1.373212337494, -1.995869278908, -1.450937032700, -4.030853271484, -0.045419562608, 0.786490261555, 0.215618878603, -5.758864879608, -0.313612103462, -0.431326597929, -0.999168157578, 1.158115983009, 0.140134409070, 26.691186904907, -0.746005058289, -0.525448858738, 0.218748942018, 0.360863447189, -0.317586392164, 1.205805182457, 0.202518731356, 1.941587328911, -0.157177612185, -4.897548198700, -1.415872216225, 1.533290505409, -0.658175706863, 0.403812587261, -0.071136839688, -0.393665283918, 0.089280888438, 0.171254009008, -0.492741167545, 1.998234033585, -0.571609735489, -0.258326411247, 0.642407476902, 0.330360174179, -1.352957606316, -1.517641544342, -0.294815212488, -0.031619541347, 0.440221250057, 0.291881710291, 0.081714227796, -2.002242326736, 0.002799232723, -0.334699332714, 0.284408658743, 0.182031780481, 1.513891339302, 0.262538820505, 0.084222495556, 0.760860264301, 0.445711940527, -0.818292379379, -0.284973859787, 0.293341457844, -0.045112632215, 0.530907988548, -0.107745140791, 0.155504927039, 0.080940403044, -0.001541511621, 0.133425354958, 0.440050542355, 0.069623045623, -0.547030448914, -0.007520289626, -0.027168823406, 0.014716734178, 0.369627982378, -0.070250406861, -0.182496890426, 0.069077558815, -0.641116380692, -0.104164876044, 0.636904597282, 0.396662414074, -0.005226934794, -0.111632503569, 0.068963065743, -0.158590480685, 0.156267628074, 0.706589102745, -0.717792034149, -11.619699478149, 0.101033978164, 0.255240619183, 0.001808307483, -0.163136541843, 0.284112393856, -0.001502613770, -0.096498243511, 0.097799517214, -0.972029805183, 0.069473251700, -0.342065393925, 0.147075116634, 0.028464503586, -0.055777765810, -0.167162671685, -0.092566847801, 3.085495710373, 0.032386880368, 0.177882850170, 0.604400634766, -0.105154231191, -0.169854074717, -0.305153757334, -0.004164312966, 0.053043209016, 0.049735948443, -0.657922863960, -0.957298517227, 0.264335423708, 0.008206992410, -0.732865631580, -0.199125424027, 0.337363541126, 0.245934322476, -0.161316126585, -0.215628176928, -0.272284895182, 0.130655318499, -0.102024778724, -0.107841879129, 0.271993368864, 0.063981018960, 0.531022548676, -0.652596592903, 0.024435078725, -0.351628690958, 0.092983283103, 0.007348214276, 4.570208549500, 0.064363002777, -0.190496921539, -0.059418689460, -1.498880982399, 0.066567741334, -0.468189924955, -0.104506969452, 0.319424271584, -0.174594357610, -0.038839362562, -0.268518745899, -0.024461656809, -0.040433254093, -3.666384458542, -0.745548725128, -7.734272480011, 0.726393759251, -0.359984129667, -0.090061947703, -0.137889012694, -0.105463802814, -0.131818249822, 0.068648293614, -0.181283488870, -0.089842900634, -0.023109296337, 0.381069749594, 0.220907971263, 0.181864857674, 0.036670982838, -0.108266927302, 0.874771356583, -1.127007961273, -0.012983461842, -0.203996866941, -0.267249673605, 0.049804534763, 0.335983812809, 0.092257365584, 0.080665528774, 0.123377069831, 0.019985314459, 0.448369681835, -0.123737037182, -0.154789328575, -0.173242837191, -0.490246653557, -0.008752691559, -0.135578766465, 0.000213519321, -0.016100684181, 0.026282139122, -0.081976965070, 0.001157800900, -0.009109775536, -0.115035921335, 0.081227071583, -0.023160014302, 0.034773778170, 0.118910945952, -0.044181488454, -0.138850927353, -0.086118020117, 0.398014128208, -0.382885068655, -0.037047736347, 0.215636804700, -0.219412550330, -0.034259799868, 0.343029469252, 0.171370029449, 0.008777981624, 0.041991777718, -0.026558240876, -0.020988471806, -0.095721490681, 0.860789656639, 0.081158109009, -4.971995830536, 0.118527464569, 0.045680399984, -0.065237760544, -0.208556205034, -0.190686762333, -0.037468105555, -0.054508052766, -0.163068950176, -0.825758457184, 0.077457092702, 0.053255945444, 0.146093994379, -0.025141235441, 0.034204076976, 0.044197607785, -0.046134196222, -0.060350961983, -0.459008991718, 0.139089256525, -0.147209674120, -0.140329390764, 0.191595166922, -0.175116315484, 0.104097396135, 0.033670634031, -0.126185998321, -0.216803446412, -0.212237983942, -0.184034585953, 0.041067749262, 0.166753083467, -0.080091923475, -0.015147998929, -0.063138887286, 0.123242795467, 0.079783022404, 0.050678789616, 0.103397428989, -0.112185031176, 0.016561239958, -0.199520856142, -0.042003005743, 0.222351402044, -0.061711952090, -0.128341108561, -0.103407263756, -0.160463690758, 0.021717458963, -0.146154314280, 0.121817976236, -0.218471258879, 0.205622136593, 0.000235304236, 0.185127317905, 0.045919090509, -0.145475447178, -0.018458440900, 0.041808545589, 0.103315711021, 0.211889564991, 0.176837325096, 0.105322062969, 0.106152117252, 0.090311259031, -0.041042923927, 0.111963301897, 0.095532357693, 0.197639226913, 0.083816736937, 0.142644762993, 0.227976053953, 0.186905384064, -0.127827525139, -0.030663967133, 0.183826535940, 0.129160106182, -0.141426205635, 0.131127804518, 0.227369308472, -0.012717023492, -0.039364427328, -0.036569118500, 0.166699379683, 0.111659854650, 0.176472604275, -0.217223942280, -0.160063564777, 0.230920135975, -0.230775892735, 0.082495331764, -0.065862670541, -0.160860449076, -0.069941148162, 0.019291430712, -0.088441580534, 0.084020406008, -0.110243082047, 0.208564609289, -0.208851337433, -0.069279506803, -0.087150797248, 0.208160549402, 0.036287754774, -0.049215331674, 0.013767093420, 0.073240548372, -0.093444988132, 0.056135863066, 0.003385990858, -0.158954814076, 0.143650144339, 0.011493325233, -0.186973914504, 0.149092584848, 0.061709169298, 0.083291091025, 0.213214546442, 0.255563437939, 0.003380889073, 0.150310114026, 0.287030190229, -0.196128830314, -0.081618435681, 0.242287024856, 0.241862863302, -0.051821757108, -0.288447946310, -0.093298390508, -0.126465022564, -0.011193810962, -0.102070689201, -0.099490530789, 0.107957944274, 0.014313109219, 0.059644181281, -0.034866228700, -0.009025726467, -0.027297373861, -0.046446830034, -0.115052118897, 7.752173423767, 0.000067541449, 0.071970120072, -0.016318378970, -0.114609412849, -0.103933975101, 0.048833310604, 0.794380962849, 0.038634978235, 0.352778613567, -0.168926075101, 0.002893287688, 0.493400096893, -0.301235854626, -0.597773313522, 1.155933141708, 0.675770580769, 0.351342469454, -0.453485310078, -0.194599673152, 0.822458446026, 0.078487575054, -0.546207487583, -0.306394815445, 0.190319508314, 0.036070439965, -0.231880068779, -0.061494469643, -0.073779784143, -0.134323328733, -0.450081318617, -0.369730293751, -0.356456726789, -0.313449263573, 0.236332476139, 0.216812059283, -0.777810156345, -0.826442062855, 0.028809461743, -0.222444042563, 0.310328394175, -0.187217727304, -0.032379772514, 0.104909397662, -0.251984387636, 0.054097812623, -0.075854703784, 0.069999173284, -0.110461942852, 0.141678690910, 0.097868226469, -0.286237925291, 0.094214774668, -0.137855112553, 0.148930281401, -0.058666355908, 0.038674131036, -0.045672141016, 0.051220148802, 0.150601163507, -0.525573730469, 0.045348405838, -0.088896527886, 0.051435928792, 0.119746662676, -0.005412968341, 0.093513444066, -0.096842572093, -0.187743946910, 0.091408662498, 0.051521539688, -0.101901143789, 0.217786207795, -0.017515745014, -0.035250399262, 0.051058597863, -0.106408014894, -0.088288612664, -0.102331340313, 0.035931494087, 0.087103888392, -0.004578341730, -0.061467062682, -0.137226015329, 0.036971054971, 0.061919957399, -0.043051879853, 0.262986689806, 0.101829029620, 0.038129907101, 0.069853387773, 0.002341945656, -0.150243744254, -0.023334914818, 0.004666848108, 0.025882214308, 0.067512266338, -0.106984592974, 0.151675462723, 0.058057203889, 0.048653133214, 0.078327335417, -0.143499344587, 0.089638561010, -0.090219050646, 0.041262995452, -0.191437721252, 0.032431472093, 0.082585960627, 0.039349433035, 0.083736091852, 0.217046067119, -0.032136823982, -0.034460742027, 0.062226478010, 3.215081453323, -0.049098543823, -0.083290643990, 0.113746330142, -0.134840026498, -0.150760024786, -0.005825276021, -0.006659826264, -0.026566263288, 0.057978890836, 0.104956336319, 0.162693455815, -0.024779297411, -0.066440112889, 0.000132438043, -0.160466179252, -0.096732281148, 0.171353325248, 0.314626902342, 0.093964755535, -0.155052363873, 0.230307668447, -0.123166538775, 0.205722600222, -0.145434826612, 0.157966911793, -0.066005647182, -0.074514016509, -0.154350161552, -0.164123162627, 0.083251386881, -0.215751990676, 0.052952229977, -0.144234314561, -0.022566944361, 0.066781699657, -0.051496222615, -0.180376201868, -0.076260343194, 0.175952613354, -0.216576039791, -0.100948959589, 0.191464722157, 0.096336424351, 0.028431415558, -0.152239143848, 0.002564638853, -0.098309442401, 0.117017269135, -0.063014328480, 0.132359296083, 0.183256208897, -0.161144703627, -0.143073260784, 0.093313664198, 0.142531752586, 0.056783705950, -0.049054756761, -0.032974764705, -0.032624736428, -0.105807945132, 0.042294085026, -0.215522438288, -0.057795599103, -0.200163125992, -0.087477594614, -0.105212971568, 0.047192275524, 0.158856809139, -0.084407806396, 0.210973888636, 0.053597599268, -0.211629420519, -0.086281001568, 0.102892905474, 0.174227595329, 0.228971004486, 0.157130956650, 0.210359811783, -0.206039592624, -0.040628671646, 0.216786354780, 0.111806094646, -0.009377062321, 0.222275018692, -0.097838014364, 0.131662160158, 0.207362055779, -0.213541686535, -0.174599081278, -0.121782101691, 0.225922137499, 0.215777486563, -0.154951602221, 0.155319392681, -0.204398438334, 0.094877719879, 0.103919535875, -0.194603592157, -0.053051337600, 0.227691143751, -0.077477231622, 0.216416388750, 0.008280947804, -0.008212745190, -0.093635201454, -0.031113550067, -0.034440919757, 0.159794867039, 0.018872976303, -0.178624749184, -0.093219339848, -0.212892293930, -0.103174328804, -0.227599218488, 0.204999983311, -0.174132615328, -0.156012505293, -0.214702352881, -0.073572754860, -0.150930240750, -0.026932761073, 0.157027155161, 0.006856679916, -0.148662716150, 0.204898297787, 0.142497658730, 0.141003221273, -0.180088102818, 0.104113161564, -0.125971391797, 0.019540101290, -0.030381590128, -0.123140931129, 0.226810216904, 0.211717158556, -0.159082457423, 0.226139843464, -0.186228439212, 0.180531203747, 0.120605975389, 0.017960518599, 0.228545546532, 0.154907912016, 0.115879148245, 0.069703966379, 0.089318394661, -0.218146339059, 0.004256382585, -0.112836688757, 0.141783028841, 0.224599719048, 0.073678642511, 0.026696145535, -0.043115228415, -0.187140226364, -0.220899149776, -0.218482241035, 0.174455881119, 0.013085976243, -0.120916940272, -0.046790704131, -0.220473900437, -0.185820847750, 0.160452097654, -0.199325397611, -0.231104671955, -0.143350616097, -0.177467390895, 0.171079993248, 0.203294783831, -0.003203764558, -0.155941545963, -0.066024020314, 0.186154067516, -0.158014982939, 0.191060602665, 0.045473635197, 0.039991319180, 0.000691667199, 0.091334939003, 0.124560087919, 0.157795131207, -0.128181427717, -0.104556113482, -0.202708780766, -0.083029270172, 0.216892957687, -0.074709355831, 0.048255205154, 0.119588136673, -0.165002554655, -0.063556790352, -0.068036392331, -0.208723142743, -0.183233648539, -0.211340039968, -0.123643599451, 0.200962394476, 0.146884888411, -0.197778671980, -0.166063070297, 0.047146588564, 0.063239932060, -0.024808749557, 0.018306136131, 0.035293221474, 0.051510185003, 0.132895827293, -0.000883102417, 0.007228553295, -0.039050713181, 0.096156239510, -0.215516090393, -0.043636262417, -0.101293146610, 0.027778178453, -0.069643110037, -0.038931787014, 0.064451038837, 0.047859609127, -0.128433272243, 0.112900644541, -0.087987199426, 0.085557758808, 0.024213224649, 0.134455204010, -0.007351562381, -0.230120584369, -0.162424236536, 0.159098237753, -0.176985368133, 0.127865165472, -0.133862644434, -0.065871000290, -0.145373135805, -0.043676823378, 0.082437485456, -0.163027286530, 0.120981991291, 0.065151095390, -0.021182343364, -0.111216232181, -0.585139036179, -2.221625566483, 0.264237552881, -0.155423671007, -1.007685780525, -0.959524035454, 0.570515930653, -1.279574394226, -1.547682404518, -0.607510924339, 0.034083388746, -0.320444077253, 1.769397258759, 0.406383931637, -0.291906654835, 0.515030205250, -1.048369407654, 0.882742345333, 0.649465918541, -0.050125777721, -0.087916217744, 0.973125755787, -0.518825173378, -1.380372047424, 0.850709497929, 1.527684092522, 0.002141832840, 0.546548068523, -0.250215709209, -1.019465088844, 1.599882960320, 1.465046405792, 0.558567941189, -0.899369120598, -0.421148598194, 0.175229087472, 0.411949634552, -0.560687065125, 0.393426150084, 0.442606985569, 0.565844595432, 0.800249695778, -0.468045353889, -0.647067785263, 1.791471004486, -0.010085253045, -1.316245794296, -1.026396989822, 0.831621110439, 0.073306180537, -0.388451039791, 0.716048717499, 0.454992353916, 0.361680746078, -0.658280551434, -0.399267911911, 0.614912450314, 0.578364074230, 0.364167869091, 1.010884165764, 0.303938418627, -0.448568373919, -2.085253477097, -1.304702401161, -1.564549207687, 3.289229631424, 1.170455694199, -0.784092962742, 0.865310788155, -1.182207345963, 1.937615275383, -1.551458239555, -0.947030782700, 3.514127254486, -1.861448526382, -0.880371332169, -0.442520171404, -0.511693358421, 1.707894563675, 0.675577640533, -2.019968748093, -0.451587438583, 0.975722193718, -5.547117710114, -0.186250135303, -3.301563024521, 1.864184379578, 0.070827655494, -2.692203998566, -1.149058103561, 8.358004570007, 0.797997057438, 0.890775680542, -0.256079673767, -2.178383588791, 1.949865460396, 0.671887278557, -0.726432859898, -0.934292674065, 0.364185392857, 0.034402098507, -0.450472027063, 0.208901226521, -1.146180272102, -0.045957099646, 1.960537791252, 2.104633331299, 0.396364182234, 0.803125798702, -0.430682122707, -0.361134797335, -0.471784740686, 0.621461629868, 0.007249021437, 0.639592826366, 0.718130111694, 0.724504828453, -0.013366918080, 0.218153148890, 0.843310177326, 0.333090633154, -0.582624733448, 0.844749629498, 0.082828320563, 0.528796613216, -0.837472617626, -0.818957448006, -1.391612291336, -0.528229296207, -2.771624088287, 0.724077820778, -0.212602391839, 0.825765788555, 0.366775840521, 1.067308425903, -2.609469652176, 0.320976853371, 4.118976593018, 0.291074037552, -0.117273278534, 3.938864469528, 0.612064838409, -0.974975705147, -0.485687971115, -0.470307290554, 1.365444540977, -0.820061266422, 2.743884801865, 0.955989360809, 0.081329628825, 0.978607356548, 0.993604838848, -0.042094118893, -0.443411380053, -1.334502458572, -0.349089443684, -0.509298741817, 1.059181213379, 1.745861887932, 0.208821609616, 0.661977112293, -0.078553162515, 1.608362555504, 0.322445392609, 0.137334823608, -0.750510334969, -0.625915467739, 0.434868454933, -0.137632936239, 1.303072690964, -0.297488093376, 0.533293843269, 0.521905481815, 0.212447151542, -0.360781252384, -1.343923091888, 0.096402369440, 1.037671089172, 0.268974363804, -0.274777472019, 0.246544286609, -0.107894629240, -1.095089912415, -1.155863285065, -0.574214279652, 0.150197520852, -0.040810823441, 0.201001316309, 0.090994812548, -0.724424660206, -0.148290365934, -1.360845685005, 0.086212716997, -0.234139621258, 1.188933372498, -0.078279979527, -0.932693064213, -0.282682448626, -0.315088301897, -0.062859259546, 0.061451271176, 2.556816339493, -0.217975020409, 0.297451436520, 0.285048693419, 3.463924646378, -0.250483363867, -0.116060070693, -0.055213376880, 0.741658329964, 0.266845971346, -0.079766668379, 0.002217149595, -0.220521867275, 0.521331012249, -0.513104677200, -0.680693566799, -0.230792254210, 0.146693333983, 0.395721644163, -0.155312120914, 0.288695812225, -0.306372702122, 1.530219078064, -0.033377941698, -0.315349280834, 0.177180081606, -0.186839371920, -3.127978324890, -0.065406680107, -0.334564805031, -0.306333035231, 0.266801953316, 2.969680070877, 0.042368020862, 0.029546620324, 0.375496834517, -16.856296539307, -0.768456935883, -0.003551909700, 0.327780097723, 0.155674815178, 0.519569754601, -0.182273641229, 0.042639356107, -0.045543845743, -0.430857181549, -0.343750804663, -0.518139362335, -0.328291922808, 0.105795621872, -0.363633215427, -0.661658465862, 0.434993267059, 0.601007819176, 2.590643167496};
