//Numpy array shape (32, 16)
//Min -3.912946462631
//Max 5.164898395538
//Number of zeros 0

weight_default_t w2[512] = {-1.220122814178, 0.683521628380, 0.272698342800, -0.469102203846, -0.319601297379, 3.599922657013, 0.445454388857, 0.048358973116, -0.078879192472, 0.209991246462, -0.260033279657, -3.147573232651, 0.183588758111, 0.344407379627, 0.125119104981, 0.560520052910, -0.106218919158, -0.259905427694, 0.215435370803, 0.070907875896, -0.697946548462, -0.094601839781, 1.086165547371, 0.040058653802, -0.012994391844, -0.070000104606, -0.036550343037, -0.641789019108, -0.066822938621, -0.184919357300, 0.040790595114, 0.105819135904, 0.054793402553, 0.007302388083, 0.136958494782, 0.341832011938, 0.003160615917, 0.094760961831, 0.166459336877, 0.684402585030, 0.007787284441, 0.098542720079, -1.292651772499, 1.004366636276, 0.124466449022, 0.187097027898, 0.048488084227, 1.114356994629, -1.085376977921, 1.914607286453, 0.640873432159, 0.498376399279, -0.763004720211, -0.736928999424, 0.165026918054, -0.289802640676, -0.071563862264, 0.938342154026, 0.510243594646, 1.874304890633, 0.245491728187, -0.148956850171, 0.431890636683, -1.021541953087, -0.428241997957, -0.038482230157, -0.068061716855, -0.207693696022, 0.311492204666, -0.094159811735, 0.676203250885, -0.103550709784, -0.213306054473, 0.105352245271, -0.570285260677, -2.158864974976, 0.200933560729, -0.031273044646, 0.009654965252, 0.623546600342, 0.128115192056, 0.299444794655, -0.248996675014, -0.174873054028, 0.242092400789, -0.450419962406, -2.174210071564, -0.062483120710, -0.019016388804, 0.040947187692, 0.436159372330, 0.150854051113, -0.050418980420, -0.171558886766, 0.063683785498, -0.456452757120, -0.067839473486, 0.576021969318, -0.053960796446, -0.089068211615, 1.277603983879, 1.934010386467, -1.464494705200, 0.910783231258, 0.016817776486, -0.584494650364, 0.391722202301, -1.418429255486, 0.088414460421, 0.169500991702, 0.193491727114, 1.319579124451, 0.816253721714, -1.257310867310, -0.406759202480, -0.323431015015, 1.292314052582, 0.331387341022, -0.862660109997, -0.981493175030, 0.882265448570, -0.531893789768, 1.376053929329, 1.659584641457, 0.087134905159, -0.751080274582, -0.460749119520, 0.660674393177, 0.709056079388, -0.774683177471, -0.854581117630, -1.008509159088, 0.242229759693, 0.081711217761, 0.503273189068, -2.268429994583, 0.719458639622, -0.293845146894, 0.041708461940, 0.111315608025, -0.070214867592, -0.345569312572, -0.496723622084, 1.507316350937, 0.436702996492, 1.712535738945, 0.405441999435, 0.115144066513, -0.486420661211, 0.620146036148, 0.161627516150, 0.063290692866, 0.643289983273, -0.509326338768, -0.261698752642, -0.394065320492, 0.211859285831, 0.061066064984, -0.246508374810, -0.097678110003, -0.416810333729, 0.014406217262, 0.056198216975, 0.313764601946, 1.042526483536, -1.835122585297, -0.817060112953, -0.719366669655, -0.429870575666, 0.090384133160, 0.039306618273, 0.594387769699, 0.287075757980, -0.523059606552, 0.146963611245, 0.563104987144, 1.270011901855, -0.917045474052, 0.057913571596, -2.276978731155, -1.326878070831, 0.428439944983, -0.880546391010, -0.197813391685, -0.417692899704, -0.175073355436, 1.428162217140, 0.318317770958, -0.273519039154, 0.061051156372, -0.108809895813, 0.330143213272, -0.346157640219, -0.400039553642, -0.112293407321, -1.131116986275, -0.212135180831, -0.326539188623, 0.724798560143, 0.129873543978, -0.340719372034, 0.464447498322, -0.193036913872, -2.055037975311, -0.103102780879, -0.532060503960, 0.055571805686, 0.117212578654, -0.801436245441, -0.633643984795, -0.628292083740, -0.422513902187, 1.010420560837, 2.100713253021, 1.857359290123, -0.795103728771, -0.743337273598, 0.849337458611, -1.140826344490, -0.171297326684, 0.495040506124, -0.758046627045, 0.177397623658, -0.019674874842, 0.538707971573, 1.492259263992, -0.039513833821, 0.281096696854, 0.380590170622, -0.012764038518, -1.329249978065, -1.365117192268, 0.074450105429, -0.347005277872, 0.496192872524, 2.274825811386, 0.035320475698, -0.165917471051, -0.069043576717, -0.573600351810, -1.749413013458, 0.079155564308, -0.415241301060, -0.659171223640, -0.414973020554, 0.343953698874, 2.754369497299, -0.056170053780, -0.025236791000, 0.640891551971, -0.698284327984, -3.679116487503, 0.107360802591, 0.026779469103, -0.180025041103, -1.638113856316, 0.363215237856, 0.001624523778, 0.362602353096, 0.113931261003, 0.004288944881, 0.416468471289, -0.790848374367, 0.042114708573, 0.100708678365, -0.363185793161, 0.305215269327, 0.244153216481, -0.216638833284, 0.398639440536, 0.027410691604, 0.164612770081, 0.181148633361, -0.567392706871, 0.138999000192, 1.142092943192, 0.043769959360, 0.522048592567, -0.548642396927, -0.506748795509, 0.001082275179, -0.669455230236, 0.189775481820, -1.537104129791, -0.248752415180, 0.109491392970, -0.110934481025, 0.331826806068, -0.471688866615, -0.219390809536, 0.457697749138, -1.693571209908, -1.032663226128, -0.193522825837, 0.862863481045, 0.078600786626, -0.199437573552, 0.471011191607, 0.385116457939, -2.475497245789, -0.229117378592, -0.404864460230, -0.007298653480, -0.245263263583, -0.004862622358, -0.184857159853, 0.121167622507, -0.400273501873, -0.337788224220, 0.515318334103, -0.063793540001, -0.021708635613, 1.768549680710, -0.050150249153, -0.093294806778, 0.126282572746, 0.707504093647, 0.261888742447, -0.946327686310, -0.481673628092, 0.225561037660, 0.832225441933, -0.655823528767, -1.290046691895, 0.555720806122, -0.459320783615, 0.142129778862, 0.240417733788, -0.167360052466, 0.193853601813, -0.165048390627, 2.461076498032, 0.146804273129, -0.951049506664, -0.114477030933, -0.349181264639, 0.946986377239, -1.451223731041, 0.066870406270, 1.071506500244, -0.218851208687, 1.148410677910, 1.978883147240, 0.688468575478, 0.930721282959, -0.252204090357, -0.403688579798, -3.912946462631, 0.587767720222, -0.239120438695, -0.647834122181, 1.248698711395, 1.709093809128, 1.391300678253, 0.635151267052, -0.785893142223, -1.007977485657, -0.256285220385, -2.939251184464, -0.192738145590, 0.264149159193, -0.969001829624, 0.616697072983, 5.164898395538, -0.257871836424, 0.277664870024, -0.333505243063, 0.888215601444, -0.648082673550, 0.227534785867, 0.327116161585, 1.249688982964, -0.903433084488, 0.752597987652, 0.781361818314, -0.645559430122, 0.043198429048, -0.232050374150, -0.367910385132, -1.028673410416, 0.035763692111, 0.538545489311, -0.104326531291, 0.087499164045, 0.461089521646, -0.263511419296, -0.069952227175, 0.182955697179, -0.770674526691, 0.098879247904, 0.002863620641, 0.452890783548, 0.094947561622, -0.199620842934, -0.233388453722, 0.340002834797, -0.008578920737, 0.297880232334, -0.330510884523, 0.029665650800, -1.188167929649, 2.208036899567, 1.009327292442, -0.506182551384, -0.602522194386, 0.758503973484, 1.937653422356, -0.865703105927, 1.685324311256, -0.134325191379, -1.703264236450, -3.441173553467, 1.042719006538, 2.531837224960, -0.292498260736, 1.099090933800, -0.006422129460, 0.057603362948, 0.056429833174, 0.384703725576, 0.044891178608, 1.259878754616, 0.173750907183, 0.137499749660, 0.567022085190, -0.105891376734, -0.385956645012, 0.514701366425, 0.461889863014, 0.048432409763, -0.737142801285, -0.279179364443, 0.137725681067, 0.485519826412, 0.205921560526, 0.292867898941, -0.733126699924, -0.562841594219, -1.800336122513, 0.305580794811, 0.083901427686, -0.213503196836, 0.384879767895, -1.501558065414, -0.117232933640, 0.324470728636, -0.081118062139, -0.109487645328, 1.602198004723, 0.490419209003, 0.466760575771, -0.434589117765, 0.278043180704, 4.163677692413, -0.105843581259, -0.717665135860, 1.546300053596, -0.393422245979, 0.834141492844, 1.028734922409, -0.614432871342, -0.266535967588, 0.315908014774, -0.061947949231, 1.399538397789, 0.019913790748, 0.269227266312, -0.263940691948, 0.173561081290, 0.263226062059, -1.000355243683, 1.419057250023, 0.406126797199, -0.274357765913, 0.279894053936, 1.435977578163, 0.083979777992, -0.092844866216, 0.038572292775, 0.864761710167, 0.118176236749, 0.111767068505, 0.242768302560, -0.325121074915, -0.102983795106, 0.162538066506, -0.014273537323, 0.473997056484, -0.118666574359, 0.027737651020, 0.037272598594, 0.349733263254, -0.119889438152, -0.066581904888, 0.018230801448, -0.034052100033, -0.132637858391, 0.009833462536, -0.095653645694, 0.280748397112, 0.466354310513, -0.550830960274, 0.550628423691, -0.078315511346, 0.041889023036, 0.143070712686, -0.397560775280, -0.181407257915, 0.198735043406, -0.211827158928, 0.105914361775, 0.239205032587};
