//Numpy array shape (16, 16)
//Min -5.808602809906
//Max 6.451512813568
//Number of zeros 0

weight_default_t w3[256] = {-1.152565240860, 0.393598020077, 0.623276770115, 1.504105687141, -0.883780896664, -0.439577221870, 0.846604645252, 0.748478412628, 0.155519306660, 0.836609542370, -3.616139411926, 2.449783563614, 0.991446554661, 1.644382357597, 0.400617331266, 1.618077039719, -0.504434049129, 0.075709387660, 0.465573668480, 0.532052874565, -1.023325085640, 0.172826826572, -0.079045325518, 0.553156137466, 0.349583506584, 0.252543687820, -1.056084632874, -0.327496200800, -0.274002254009, 1.706950783730, -0.321843624115, -0.718646109104, 0.843145310879, 0.030202457681, 0.579367160797, -1.949248671532, 1.948522567749, 0.836293935776, 0.054848365486, -0.701656579971, -0.199509441853, -0.077542938292, 2.597751379013, -2.746351003647, -0.106646291912, -2.224731206894, -0.461982637644, -1.141602993011, 0.752848029137, 0.071214705706, -0.121387720108, 0.285045742989, -1.099391818047, -0.020219810307, -0.298552662134, 0.624444067478, 0.288019299507, 0.006578152534, 0.343359291553, -0.955389976501, 0.198009446263, 0.794176995754, 0.095653474331, -0.049687784165, 1.136356592178, -0.104939706624, 0.133487537503, 0.239413872361, -0.874054193497, -0.384905010462, -0.017457228154, 0.605115830898, 0.244310855865, -0.038312491030, -0.433398663998, -0.052763313055, 0.250078916550, -0.347565799952, 0.088611170650, 0.637493550777, 0.413688629866, 0.313728719950, -0.937895774841, -1.173004746437, 0.736814379692, 0.367502242327, -0.380921214819, -0.875954270363, -1.647061586380, 0.257848769426, -0.170791849494, 0.647826671600, -0.498248398304, 0.025558643043, -0.409883528948, 3.468945264816, 1.067885041237, 0.676288187504, -0.471748799086, 0.206011787057, 0.244161412120, 0.736989200115, -0.094966106117, 0.517839431763, -0.393641471863, 0.241572424769, 1.049299240112, 0.631227195263, 0.080275364220, -0.718708932400, -1.726897478104, 1.822072863579, 2.106898307800, 0.396015435457, -1.209115624428, 0.297874242067, 1.095810770988, 1.970884919167, -0.724155366421, 0.536603689194, -0.927601873875, -1.221832156181, 2.387537240982, -1.220632672310, -0.815902769566, 0.351973026991, -2.871227264404, 1.619981527328, -1.116374969482, -0.729384124279, 0.377820312977, -0.331946015358, -0.265500426292, -0.990766525269, -0.008269467391, -0.655244231224, 0.499168723822, -0.149894103408, 0.580189764500, -1.329814791679, 1.014660835266, 0.742821156979, 1.765937805176, -0.358731746674, -0.517517387867, 0.617484986782, 0.961598515511, 0.838498115540, 0.065652593970, 1.280673027039, -0.204986989498, 1.112311959267, 0.698441922665, 0.480861634016, -0.458462566137, -1.045014262199, -1.093395352364, -0.173632323742, -0.930343449116, -3.553935527802, -3.861860513687, -1.397143006325, 1.543137073517, -0.570955634117, -4.350560665131, -1.982176661491, -2.412101745605, -1.264682412148, 3.876972675323, 0.799079179764, -5.808602809906, 6.451512813568, 1.688098430634, -1.049300432205, 1.238997936249, 0.023953547701, -1.538276672363, -0.127236872911, 0.255601197481, 0.477888971567, -0.819673955441, -1.595053792000, 0.048720087856, 0.876040697098, 1.450758934021, -0.028887657449, 0.117678523064, 0.314113885164, 0.419272065163, 0.192955940962, 1.368018627167, -0.755311012268, 1.020956993103, -1.040683269501, -2.846498012543, -2.248322248459, -0.351630270481, 1.925975918770, 0.375802516937, -0.791442394257, -0.883537709713, -1.708798050880, -0.317493587732, 1.244040012360, 0.901625573635, -0.312297642231, -1.497087001801, 0.442404866219, 1.485464334488, 0.114561766386, -0.774560034275, 1.054448366165, -0.071495950222, -0.509131729603, -0.197222679853, 1.737917184830, -0.421649992466, -0.376764267683, 0.842130303383, 0.356194078922, 0.053148224950, 1.451327443123, 0.783690094948, 0.456870108843, 0.000152662134, 2.452435016632, -0.216356754303, 0.165545389056, 0.173955604434, 0.596859157085, -1.272838354111, 0.036343824118, -0.046731226146, 0.310195475817, 0.101421013474, -0.221593484282, -1.699987769127, -0.138066589832, -0.898783624172, -0.207702726126, 0.239053919911, 0.385154008865, 0.661297321320, 1.098500728607, 1.040712356567, 0.946034491062, -0.048485018313, -0.187443077564, 0.117802165449, 0.399561136961, -0.879910349846, 0.044325612485, -0.491931051016, 1.370049834251, -0.634542107582, -1.920458197594};
