//Numpy array shape (10, 32)
//Min -0.780374884605
//Max 0.646854102612

weight_default_t w1[10][32] = {0.469886034727, 0.33286473155, 0, 0, -0.442451655865, 0.349089324474, -0.00461332546547, 0, 0.542743623257, 0.0105694588274, -0.372760951519, 0, 0.0936330631375, 0.0439695045352, -0.0137981586158, 0.295308321714, 0, 0, -0.158450946212, 0.237205564976, 0.281340658665, 0, 0, 0.331360459328, 0.152280181646, 0.411959022284, 0.388127863407, 0, 0.16480627656, 0.0976520776749, 0.627826809883, 0, 0.424388736486, 0, 0, 0, 0, 0.238359376788, 0, 0, 0.326164513826, 0, 0.407794475555, 0, 0, 0, 0.588592231274, 0, 0, 0, -0.427033543587, 0, 0, 0.24760761857, 0.235603064299, 0, -0.65853947401, 0, 0.480021834373, -0.268138796091, -0.233451142907, 0, 0, 0, -0.400389879942, 0.438910186291, 0, -0.323651224375, -0.392225533724, 0.3572678864, 0, 0.394868463278, 0.0780302062631, 0, -0.487095057964, -0.327191382647, 0, 0, 0, 0, 0, 0, 0, 0.166196450591, 0.264521747828, 0, -0.299565404654, 0.148377254605, -0.574795842171, 0, 0, 0.0988429412246, 0.0118086850271, 0.365797281265, 0, -0.403643190861, -0.388556420803, 0, -0.10554137826, -0.458934038877, 0, 0.433230131865, 0.188863113523, 0.0728542357683, 0, 0.554571032524, 0, 0, 0, 0.0327457301319, 0.609308063984, 0, 0, -0.153103038669, 0, 0, 0, 0, 0.310296028852, -0.519743859768, 0, 0.646854102612, 0, 0.427223861217, 0.0946889296174, -0.24024116993, 0, 0, 0.0677106902003, 0.307132989168, -0.408271700144, 0.564430236816, 0.373969048262, -0.294965475798, 0.268711477518, 0, 0, -0.448332995176, 0, 0, 0.379427969456, 0.0594677887857, 0, -0.307702571154, -0.164764538407, 0.323285609484, -0.593663454056, 0, 0, -0.0766139179468, -0.541784107685, -0.363497048616, 0.0167881250381, -0.424634546041, 0.0934605523944, -0.307861149311, 0, 0, 0, -0.0125775840133, 0.15372492373, -0.456968694925, -0.619609177113, 0.108014553785, 0, 0, 0, -0.451573699713, -0.0221301410347, 0.278278380632, 0.326373547316, 0, 0, -0.412107855082, 0, 0, 0.397280603647, 0.505163490772, 0, 0.484979391098, 0, 0, 0, 0, 0, 0.38796466589, 0, -0.431639403105, 0, -0.592884480953, 0, 0.322846531868, 0, 0, -0.60257935524, 0, 0, 0, 0, 0, 0.402388989925, 0, 0.369744092226, 0.310960561037, 0, 0, 0, 0, 0, 0, 0, 0, -0.0810084193945, 0.0773022249341, 0, 0, 0, 0, -0.22361548245, 0, 0, -0.321361631155, 0.00806753803045, -0.356280982494, 0, 0.115001045167, 0, -0.571761250496, 0.151520609856, 0, 0, -0.679587125778, -0.0962254032493, 0, 0.2845274508, -0.124097146094, -0.170083731413, 0, 0, 0.328040361404, 0, 0, 0, 0.48392868042, -0.215632915497, 0.450591593981, -0.351363986731, -0.421781778336, 0, 0, 0.251873165369, 0, 0.119063258171, 0, 0, 0.0605220645666, 0.423658758402, 0, 0, 0, 0, 0, 0.205968305469, -0.035626064986, -0.312921822071, 0, 0.390530824661, 0, 0.412245184183, -0.276159733534, -0.780374884605, 0, 0.307958126068, 0.169523924589, -0.344679713249, 0.0704858377576, 0.493517488241, 0.306565761566, 0, 0, 0, 0, -0.128503292799, -0.351199686527, 0.201777845621, 0, 0, 0, -0.547505736351, 0, 0, 0, 0.276881158352, 0, 0, 0, 0.267590165138, 0, 0, 0, 0, 0.115053512156, 0, -0.0618994273245, 0.500961601734, 0, 0.110334888101, 0, 0.399537920952, 0, -0.00381595967337, 0, 0, 0.338534146547, 0, -0.0439685583115, 0, 0, 0.155952066183, 0};