//Numpy array shape (10, 32)
//Min -0.780374884605
//Max 0.646854102612

weight_default_t w1[10][32] = {0.469886034727, 0.33286473155, 0, 0, 0, 0.349089324474, -0.00461332546547, 0, 0, 0, 0, -0.439520865679, 0, 0, -0.0137981586158, 0.295308321714, -0.341242134571, -0.235930711031, 0, 0.237205564976, 0, 0.437705606222, 0, 0.331360459328, 0, 0.411959022284, 0.388127863407, -0.27843233943, 0, 0, 0, -0.1764690727, 0.424388736486, 0, 0, 0, 0, 0.238359376788, 0.0195394605398, 0.317052841187, 0.326164513826, 0.303764522076, 0, 0, 0.51091337204, 0.062592022121, 0, 0, 0, 0, 0, 0, -0.000206599419471, 0, 0, -0.295301884413, 0, 0, 0.480021834373, 0, 0, -0.652442574501, -0.671008348465, 0.220575734973, -0.400389879942, 0, 0, 0, -0.392225533724, 0.3572678864, -0.397361218929, 0.394868463278, 0, 0, -0.487095057964, -0.327191382647, 0.644771695137, 0, 0, 0, 0.264412999153, 0, 0.065486446023, 0, 0, 0.063338264823, -0.299565404654, 0.148377254605, 0, 0, 0.258876770735, 0, 0, 0, 0, 0, -0.388556420803, 0, -0.10554137826, 0, 0, 0.433230131865, 0, 0, 0.404284179211, 0, -0.0320322774351, 0.0706231668591, 0.171757608652, 0, 0, 0, 0, -0.153103038669, 0, -0.498597204685, 0, -0.585806488991, 0.310296028852, 0, 0, 0, 0, 0.427223861217, 0, 0, 0.213585242629, 0.426330417395, 0.0677106902003, 0.307132989168, -0.408271700144, 0, 0, -0.294965475798, 0.268711477518, 0, 0.580298185349, 0, 0, 0, 0, 0, 0.278144806623, -0.307702571154, -0.164764538407, 0.323285609484, -0.593663454056, 0, 0, -0.0766139179468, -0.541784107685, 0, 0, -0.424634546041, 0.0934605523944, -0.307861149311, -0.0440296866, 0, 0, 0, 0.15372492373, -0.456968694925, -0.619609177113, 0, 0, 0, 0, 0, 0, 0, 0.326373547316, 0, 0, -0.412107855082, 0, -0.257253676653, 0.397280603647, 0, 0, 0, 0, 0, 0, 0.377275258303, -0.12519736588, 0, 0, -0.431639403105, 0, -0.592884480953, 0, 0.322846531868, 0, 0, 0, -0.478854894638, 0.413495451212, 0, 0, -0.115412861109, 0, 0, 0.369744092226, 0, 0, 0.0807521864772, -0.372333705425, -0.172515034676, -0.115229815245, 0, -0.0264383982867, 0.409555137157, -0.0810084193945, 0, 0, 0.0681896284223, 0.46504843235, 0.454740464687, -0.22361548245, 0, 0.330072641373, 0, 0, 0, 0, 0, 0, 0, 0.151520609856, -0.280782312155, -0.363941133022, 0, 0, -0.0460290648043, 0, -0.124097146094, 0, 0.224245175719, -0.557738721371, 0.328040361404, -0.0466306358576, 0.306923151016, 0, 0.48392868042, -0.215632915497, 0.450591593981, 0, -0.421781778336, 0, 0, 0, -0.43370205164, 0.119063258171, 0, -0.39615136385, 0.0605220645666, 0.423658758402, 0, -0.346449553967, -0.501381456852, 0, 0, 0, 0, -0.312921822071, 0, 0, -0.024772150442, 0.412245184183, 0, -0.780374884605, -0.120683729649, 0, 0.169523924589, 0, 0, 0.493517488241, 0, 0, -0.543242454529, -0.220428451896, -0.706516087055, -0.128503292799, -0.351199686527, 0.201777845621, 0, 0, -0.446466118097, 0, 0, 0, 0.18624329567, 0.276881158352, 0.322869598866, 0, 0, 0.267590165138, 0, -0.195686161518, -0.392601639032, 0, 0.115053512156, 0, 0, 0, 0.459005326033, 0.110334888101, -0.151589557528, 0, 0, -0.00381595967337, 0.334656924009, -0.466167807579, 0.338534146547, 0.333391338587, -0.0439685583115, 0.426117956638, 0, 0, 0};